<?xml version="1.0"?>
<opencv_storage>
<cascade>
  <stageType>BOOST</stageType>
  <featureType>HAAR</featureType>
  <height>40</height>
  <width>80</width>
  <stageParams>
    <boostType>GAB</boostType>
    <minHitRate>9.9900001287460327e-01</minHitRate>
    <maxFalseAlarm>5.0000000000000000e-01</maxFalseAlarm>
    <weightTrimRate>9.4999999999999996e-01</weightTrimRate>
    <maxDepth>1</maxDepth>
    <maxWeakCount>100</maxWeakCount></stageParams>
  <featureParams>
    <maxCatCount>0</maxCatCount>
    <featSize>1</featSize>
    <mode>ALL</mode></featureParams>
  <stageNum>20</stageNum>
  <stages>
    <!-- stage 0 -->
    <_>
      <maxWeakCount>2</maxWeakCount>
      <stageThreshold>-1.2220372259616852e-01</stageThreshold>
      <weakClassifiers>
        <_>
          <internalNodes>
            0 -1 48 6.7518532276153564e-02</internalNodes>
          <leafValues>
            -9.4999998807907104e-01 9.1304349899291992e-01</leafValues></_>
        <_>
          <internalNodes>
            0 -1 2 1.4307161793112755e-02</internalNodes>
          <leafValues>
            -8.0694669485092163e-01 8.2779628038406372e-01</leafValues></_></weakClassifiers></_>
    <!-- stage 1 -->
    <_>
      <maxWeakCount>2</maxWeakCount>
      <stageThreshold>2.7247479185461998e-02</stageThreshold>
      <weakClassifiers>
        <_>
          <internalNodes>
            0 -1 55 -1.4170803129673004e-02</internalNodes>
          <leafValues>
            8.1651377677917480e-01 -9.4202899932861328e-01</leafValues></_>
        <_>
          <internalNodes>
            0 -1 41 -3.4323699772357941e-02</internalNodes>
          <leafValues>
            9.6927648782730103e-01 -5.9766185283660889e-01</leafValues></_></weakClassifiers></_>
    <!-- stage 2 -->
    <_>
      <maxWeakCount>2</maxWeakCount>
      <stageThreshold>2.1170584857463837e-01</stageThreshold>
      <weakClassifiers>
        <_>
          <internalNodes>
            0 -1 68 -4.0122300386428833e-02</internalNodes>
          <leafValues>
            8.7064677476882935e-01 -7.2093021869659424e-01</leafValues></_>
        <_>
          <internalNodes>
            0 -1 18 -6.8509578704833984e-02</internalNodes>
          <leafValues>
            9.3263608217239380e-01 -5.3033739328384399e-01</leafValues></_></weakClassifiers></_>
    <!-- stage 3 -->
    <_>
      <maxWeakCount>3</maxWeakCount>
      <stageThreshold>-3.4113115072250366e-01</stageThreshold>
      <weakClassifiers>
        <_>
          <internalNodes>
            0 -1 5 1.5883078798651695e-02</internalNodes>
          <leafValues>
            -5.7999998331069946e-01 9.1443848609924316e-01</leafValues></_>
        <_>
          <internalNodes>
            0 -1 30 -1.5580756589770317e-02</internalNodes>
          <leafValues>
            8.5283738374710083e-01 -5.2766036987304688e-01</leafValues></_>
        <_>
          <internalNodes>
            0 -1 46 -6.9405928254127502e-02</internalNodes>
          <leafValues>
            7.6652920246124268e-01 -5.7651704549789429e-01</leafValues></_></weakClassifiers></_>
    <!-- stage 4 -->
    <_>
      <maxWeakCount>4</maxWeakCount>
      <stageThreshold>-7.7731378376483917e-02</stageThreshold>
      <weakClassifiers>
        <_>
          <internalNodes>
            0 -1 7 5.6923425290733576e-04</internalNodes>
          <leafValues>
            -8.6885243654251099e-01 7.3451328277587891e-01</leafValues></_>
        <_>
          <internalNodes>
            0 -1 45 5.2058368921279907e-02</internalNodes>
          <leafValues>
            -5.5954772233963013e-01 7.8154957294464111e-01</leafValues></_>
        <_>
          <internalNodes>
            0 -1 17 1.0017722524935380e-04</internalNodes>
          <leafValues>
            -8.6411875486373901e-01 5.4042017459869385e-01</leafValues></_>
        <_>
          <internalNodes>
            0 -1 6 7.4540808796882629e-02</internalNodes>
          <leafValues>
            -5.3084868192672729e-01 8.3231824636459351e-01</leafValues></_></weakClassifiers></_>
    <!-- stage 5 -->
    <_>
      <maxWeakCount>4</maxWeakCount>
      <stageThreshold>9.8563149571418762e-02</stageThreshold>
      <weakClassifiers>
        <_>
          <internalNodes>
            0 -1 10 -2.5049308314919472e-03</internalNodes>
          <leafValues>
            7.8431373834609985e-01 -5.6626504659652710e-01</leafValues></_>
        <_>
          <internalNodes>
            0 -1 37 -3.0379006639122963e-02</internalNodes>
          <leafValues>
            8.2678222656250000e-01 -4.9603897333145142e-01</leafValues></_>
        <_>
          <internalNodes>
            0 -1 22 -3.3080932917073369e-04</internalNodes>
          <leafValues>
            -6.5241664648056030e-01 6.4604824781417847e-01</leafValues></_>
        <_>
          <internalNodes>
            0 -1 61 1.4269631356000900e-04</internalNodes>
          <leafValues>
            5.4270195960998535e-01 -8.0800223350524902e-01</leafValues></_></weakClassifiers></_>
    <!-- stage 6 -->
    <_>
      <maxWeakCount>4</maxWeakCount>
      <stageThreshold>6.2949441373348236e-02</stageThreshold>
      <weakClassifiers>
        <_>
          <internalNodes>
            0 -1 57 8.6258805822581053e-04</internalNodes>
          <leafValues>
            7.0666664838790894e-01 -7.4193549156188965e-01</leafValues></_>
        <_>
          <internalNodes>
            0 -1 3 9.8777621984481812e-02</internalNodes>
          <leafValues>
            -6.5507572889328003e-01 8.1216591596603394e-01</leafValues></_>
        <_>
          <internalNodes>
            0 -1 1 -1.8119314336217940e-04</internalNodes>
          <leafValues>
            -8.1907719373703003e-01 5.5411672592163086e-01</leafValues></_>
        <_>
          <internalNodes>
            0 -1 28 -3.2830592244863510e-02</internalNodes>
          <leafValues>
            8.8244420289993286e-01 -5.4275816679000854e-01</leafValues></_></weakClassifiers></_>
    <!-- stage 7 -->
    <_>
      <maxWeakCount>4</maxWeakCount>
      <stageThreshold>-1.6355159878730774e-01</stageThreshold>
      <weakClassifiers>
        <_>
          <internalNodes>
            0 -1 62 -2.7956353733316064e-04</internalNodes>
          <leafValues>
            -9.5652174949645996e-01 6.5145230293273926e-01</leafValues></_>
        <_>
          <internalNodes>
            0 -1 0 2.4733746424317360e-02</internalNodes>
          <leafValues>
            -5.9950053691864014e-01 7.0853227376937866e-01</leafValues></_>
        <_>
          <internalNodes>
            0 -1 26 -1.9915455579757690e-01</internalNodes>
          <leafValues>
            8.9307129383087158e-01 -4.5488303899765015e-01</leafValues></_>
        <_>
          <internalNodes>
            0 -1 79 1.0450012632645667e-04</internalNodes>
          <leafValues>
            5.3932088613510132e-01 -7.7018862962722778e-01</leafValues></_></weakClassifiers></_>
    <!-- stage 8 -->
    <_>
      <maxWeakCount>4</maxWeakCount>
      <stageThreshold>5.6408769451081753e-03</stageThreshold>
      <weakClassifiers>
        <_>
          <internalNodes>
            0 -1 53 2.0264077186584473e-01</internalNodes>
          <leafValues>
            -6.6666668653488159e-01 7.1040725708007812e-01</leafValues></_>
        <_>
          <internalNodes>
            0 -1 19 5.2992897108197212e-03</internalNodes>
          <leafValues>
            -6.9894665479660034e-01 6.1888885498046875e-01</leafValues></_>
        <_>
          <internalNodes>
            0 -1 59 9.8322620033286512e-05</internalNodes>
          <leafValues>
            6.1635631322860718e-01 -8.2341951131820679e-01</leafValues></_>
        <_>
          <internalNodes>
            0 -1 42 1.2297083437442780e-01</internalNodes>
          <leafValues>
            -5.0023573637008667e-01 9.7138518095016479e-01</leafValues></_></weakClassifiers></_>
    <!-- stage 9 -->
    <_>
      <maxWeakCount>4</maxWeakCount>
      <stageThreshold>-2.0837252959609032e-02</stageThreshold>
      <weakClassifiers>
        <_>
          <internalNodes>
            0 -1 65 -3.0420231632888317e-04</internalNodes>
          <leafValues>
            -9.5121949911117554e-01 6.1788618564605713e-01</leafValues></_>
        <_>
          <internalNodes>
            0 -1 66 2.8000213205814362e-02</internalNodes>
          <leafValues>
            -6.5805000066757202e-01 5.2589237689971924e-01</leafValues></_>
        <_>
          <internalNodes>
            0 -1 50 1.0120581835508347e-01</internalNodes>
          <leafValues>
            -4.1407212615013123e-01 9.0640842914581299e-01</leafValues></_>
        <_>
          <internalNodes>
            0 -1 76 -1.5399526455439627e-04</internalNodes>
          <leafValues>
            -7.5054365396499634e-01 4.9503892660140991e-01</leafValues></_></weakClassifiers></_>
    <!-- stage 10 -->
    <_>
      <maxWeakCount>5</maxWeakCount>
      <stageThreshold>-1.5832670032978058e-02</stageThreshold>
      <weakClassifiers>
        <_>
          <internalNodes>
            0 -1 70 -8.1191947683691978e-03</internalNodes>
          <leafValues>
            6.1475408077239990e-01 -8.6046510934829712e-01</leafValues></_>
        <_>
          <internalNodes>
            0 -1 39 -3.4525386989116669e-02</internalNodes>
          <leafValues>
            6.9260168075561523e-01 -5.2111130952835083e-01</leafValues></_>
        <_>
          <internalNodes>
            0 -1 49 -1.6209043678827584e-04</internalNodes>
          <leafValues>
            -7.1681433916091919e-01 5.0931841135025024e-01</leafValues></_>
        <_>
          <internalNodes>
            0 -1 78 -6.3734361901879311e-05</internalNodes>
          <leafValues>
            -7.6128131151199341e-01 4.3567705154418945e-01</leafValues></_>
        <_>
          <internalNodes>
            0 -1 14 3.1838913855608553e-05</internalNodes>
          <leafValues>
            4.2074826359748840e-01 -7.9689234495162964e-01</leafValues></_></weakClassifiers></_>
    <!-- stage 11 -->
    <_>
      <maxWeakCount>4</maxWeakCount>
      <stageThreshold>2.9693100601434708e-02</stageThreshold>
      <weakClassifiers>
        <_>
          <internalNodes>
            0 -1 51 5.4244400234892964e-04</internalNodes>
          <leafValues>
            5.9514170885086060e-01 -8.5000002384185791e-01</leafValues></_>
        <_>
          <internalNodes>
            0 -1 4 2.1662432700395584e-02</internalNodes>
          <leafValues>
            -4.3374457955360413e-01 7.4294584989547729e-01</leafValues></_>
        <_>
          <internalNodes>
            0 -1 54 -1.0469976405147463e-04</internalNodes>
          <leafValues>
            -7.7892291545867920e-01 4.5618182420730591e-01</leafValues></_>
        <_>
          <internalNodes>
            0 -1 21 -2.6026349514722824e-02</internalNodes>
          <leafValues>
            9.1567015647888184e-01 -3.7073639035224915e-01</leafValues></_></weakClassifiers></_>
    <!-- stage 12 -->
    <_>
      <maxWeakCount>3</maxWeakCount>
      <stageThreshold>-4.8819690942764282e-01</stageThreshold>
      <weakClassifiers>
        <_>
          <internalNodes>
            0 -1 16 6.9017931818962097e-03</internalNodes>
          <leafValues>
            -8.3673471212387085e-01 6.4705884456634521e-01</leafValues></_>
        <_>
          <internalNodes>
            0 -1 43 -3.4193217754364014e-02</internalNodes>
          <leafValues>
            7.7080643177032471e-01 -5.7156401872634888e-01</leafValues></_>
        <_>
          <internalNodes>
            0 -1 8 4.0610231459140778e-02</internalNodes>
          <leafValues>
            -5.6369167566299438e-01 6.4658880233764648e-01</leafValues></_></weakClassifiers></_>
    <!-- stage 13 -->
    <_>
      <maxWeakCount>4</maxWeakCount>
      <stageThreshold>-4.9701118469238281e-01</stageThreshold>
      <weakClassifiers>
        <_>
          <internalNodes>
            0 -1 44 -3.3787038177251816e-02</internalNodes>
          <leafValues>
            7.7401131391525269e-01 -2.1818181872367859e-01</leafValues></_>
        <_>
          <internalNodes>
            0 -1 60 -1.2742637773044407e-04</internalNodes>
          <leafValues>
            -5.6331789493560791e-01 5.8492463827133179e-01</leafValues></_>
        <_>
          <internalNodes>
            0 -1 29 -2.9565505683422089e-03</internalNodes>
          <leafValues>
            6.6100871562957764e-01 -4.6115830540657043e-01</leafValues></_>
        <_>
          <internalNodes>
            0 -1 31 -2.0328791812062263e-02</internalNodes>
          <leafValues>
            9.3650120496749878e-01 -4.0259566903114319e-01</leafValues></_></weakClassifiers></_>
    <!-- stage 14 -->
    <_>
      <maxWeakCount>7</maxWeakCount>
      <stageThreshold>-1.4245671033859253e-01</stageThreshold>
      <weakClassifiers>
        <_>
          <internalNodes>
            0 -1 34 1.3693145010620356e-03</internalNodes>
          <leafValues>
            -3.6708861589431763e-01 6.8269228935241699e-01</leafValues></_>
        <_>
          <internalNodes>
            0 -1 73 4.3235076009295881e-04</internalNodes>
          <leafValues>
            4.1643708944320679e-01 -7.8358113765716553e-01</leafValues></_>
        <_>
          <internalNodes>
            0 -1 64 3.5671382211148739e-03</internalNodes>
          <leafValues>
            -5.8965700864791870e-01 5.1710629463195801e-01</leafValues></_>
        <_>
          <internalNodes>
            0 -1 67 -6.0511738061904907e-02</internalNodes>
          <leafValues>
            4.9829518795013428e-01 -6.5831762552261353e-01</leafValues></_>
        <_>
          <internalNodes>
            0 -1 36 -1.1138130724430084e-01</internalNodes>
          <leafValues>
            9.6452188491821289e-01 -3.3999750018119812e-01</leafValues></_>
        <_>
          <internalNodes>
            0 -1 47 3.9934992790222168e-02</internalNodes>
          <leafValues>
            -4.6262100338935852e-01 9.1804593801498413e-01</leafValues></_>
        <_>
          <internalNodes>
            0 -1 24 -1.3635429739952087e-01</internalNodes>
          <leafValues>
            8.0900704860687256e-01 -4.0108120441436768e-01</leafValues></_></weakClassifiers></_>
    <!-- stage 15 -->
    <_>
      <maxWeakCount>4</maxWeakCount>
      <stageThreshold>-3.2504868507385254e-01</stageThreshold>
      <weakClassifiers>
        <_>
          <internalNodes>
            0 -1 13 -6.1292024329304695e-03</internalNodes>
          <leafValues>
            7.0334929227828979e-01 -4.3589743971824646e-01</leafValues></_>
        <_>
          <internalNodes>
            0 -1 77 -1.5453816740773618e-04</internalNodes>
          <leafValues>
            -8.8638174533843994e-01 4.1257861256599426e-01</leafValues></_>
        <_>
          <internalNodes>
            0 -1 52 3.6555067636072636e-03</internalNodes>
          <leafValues>
            -5.6922817230224609e-01 5.0857830047607422e-01</leafValues></_>
        <_>
          <internalNodes>
            0 -1 58 -1.2468908607843332e-05</internalNodes>
          <leafValues>
            -8.1030815839767456e-01 3.7533232569694519e-01</leafValues></_></weakClassifiers></_>
    <!-- stage 16 -->
    <_>
      <maxWeakCount>5</maxWeakCount>
      <stageThreshold>-9.1132771968841553e-01</stageThreshold>
      <weakClassifiers>
        <_>
          <internalNodes>
            0 -1 74 -1.8876697868108749e-04</internalNodes>
          <leafValues>
            -8.1818181276321411e-01 6.1316871643066406e-01</leafValues></_>
        <_>
          <internalNodes>
            0 -1 25 -2.2525754757225513e-03</internalNodes>
          <leafValues>
            -8.5280066728591919e-01 3.7946167588233948e-01</leafValues></_>
        <_>
          <internalNodes>
            0 -1 9 2.0494993776082993e-02</internalNodes>
          <leafValues>
            -5.6224387884140015e-01 5.8226257562637329e-01</leafValues></_>
        <_>
          <internalNodes>
            0 -1 69 -1.5744919073767960e-04</internalNodes>
          <leafValues>
            -7.7045249938964844e-01 3.8878923654556274e-01</leafValues></_>
        <_>
          <internalNodes>
            0 -1 63 1.0278537869453430e-02</internalNodes>
          <leafValues>
            -5.7126176357269287e-01 5.7971668243408203e-01</leafValues></_></weakClassifiers></_>
    <!-- stage 17 -->
    <_>
      <maxWeakCount>4</maxWeakCount>
      <stageThreshold>3.1337419152259827e-01</stageThreshold>
      <weakClassifiers>
        <_>
          <internalNodes>
            0 -1 38 1.5053361421450973e-03</internalNodes>
          <leafValues>
            5.8536583185195923e-01 -7.5609755516052246e-01</leafValues></_>
        <_>
          <internalNodes>
            0 -1 35 -1.1925454437732697e-01</internalNodes>
          <leafValues>
            9.6431946754455566e-01 -2.2839075326919556e-01</leafValues></_>
        <_>
          <internalNodes>
            0 -1 20 -2.8275329619646072e-02</internalNodes>
          <leafValues>
            9.1651505231857300e-01 -3.8861343264579773e-01</leafValues></_>
        <_>
          <internalNodes>
            0 -1 23 -1.0273398947902024e-04</internalNodes>
          <leafValues>
            -6.5882837772369385e-01 4.9376568198204041e-01</leafValues></_></weakClassifiers></_>
    <!-- stage 18 -->
    <_>
      <maxWeakCount>6</maxWeakCount>
      <stageThreshold>-3.1059607863426208e-01</stageThreshold>
      <weakClassifiers>
        <_>
          <internalNodes>
            0 -1 11 -1.7685586353763938e-03</internalNodes>
          <leafValues>
            6.3636362552642822e-01 -6.0714286565780640e-01</leafValues></_>
        <_>
          <internalNodes>
            0 -1 33 -3.9149612188339233e-02</internalNodes>
          <leafValues>
            7.8969663381576538e-01 -3.0536663532257080e-01</leafValues></_>
        <_>
          <internalNodes>
            0 -1 12 -1.7571733891963959e-01</internalNodes>
          <leafValues>
            9.5345604419708252e-01 -2.7122402191162109e-01</leafValues></_>
        <_>
          <internalNodes>
            0 -1 40 3.3589147031307220e-02</internalNodes>
          <leafValues>
            -3.1168246269226074e-01 8.0506610870361328e-01</leafValues></_>
        <_>
          <internalNodes>
            0 -1 72 6.3719831814523786e-05</internalNodes>
          <leafValues>
            4.5134720206260681e-01 -7.1437466144561768e-01</leafValues></_>
        <_>
          <internalNodes>
            0 -1 71 3.4517906606197357e-02</internalNodes>
          <leafValues>
            -3.8327583670616150e-01 7.7163165807723999e-01</leafValues></_></weakClassifiers></_>
    <!-- stage 19 -->
    <_>
      <maxWeakCount>5</maxWeakCount>
      <stageThreshold>-6.2579721212387085e-02</stageThreshold>
      <weakClassifiers>
        <_>
          <internalNodes>
            0 -1 15 -8.5454043000936508e-03</internalNodes>
          <leafValues>
            6.1666667461395264e-01 -7.4468082189559937e-01</leafValues></_>
        <_>
          <internalNodes>
            0 -1 27 1.5879602869972587e-04</internalNodes>
          <leafValues>
            5.0627756118774414e-01 -6.3087671995162964e-01</leafValues></_>
        <_>
          <internalNodes>
            0 -1 56 1.7954982467927039e-04</internalNodes>
          <leafValues>
            4.1013625264167786e-01 -7.2088241577148438e-01</leafValues></_>
        <_>
          <internalNodes>
            0 -1 75 -7.7051212429068983e-05</internalNodes>
          <leafValues>
            -8.1684958934783936e-01 3.6947408318519592e-01</leafValues></_>
        <_>
          <internalNodes>
            0 -1 32 -5.0608474761247635e-02</internalNodes>
          <leafValues>
            5.2723193168640137e-01 -5.5213856697082520e-01</leafValues></_></weakClassifiers></_></stages>
  <features>
    <_>
      <rects>
        <_>
          0 2 12 31 -1.</_>
        <_>
          6 2 6 31 2.</_></rects>
      <tilted>0</tilted></_>
    <_>
      <rects>
        <_>
          0 4 6 6 -1.</_>
        <_>
          0 4 3 3 2.</_>
        <_>
          3 7 3 3 2.</_></rects>
      <tilted>0</tilted></_>
    <_>
      <rects>
        <_>
          0 4 28 36 -1.</_>
        <_>
          7 4 14 36 2.</_></rects>
      <tilted>0</tilted></_>
    <_>
      <rects>
        <_>
          0 7 39 33 -1.</_>
        <_>
          13 7 13 33 3.</_></rects>
      <tilted>0</tilted></_>
    <_>
      <rects>
        <_>
          0 8 10 25 -1.</_>
        <_>
          5 8 5 25 2.</_></rects>
      <tilted>0</tilted></_>
    <_>
      <rects>
        <_>
          0 8 14 22 -1.</_>
        <_>
          7 8 7 22 2.</_></rects>
      <tilted>0</tilted></_>
    <_>
      <rects>
        <_>
          0 14 40 13 -1.</_>
        <_>
          10 14 20 13 2.</_></rects>
      <tilted>0</tilted></_>
    <_>
      <rects>
        <_>
          0 18 14 6 -1.</_>
        <_>
          7 18 7 6 2.</_></rects>
      <tilted>0</tilted></_>
    <_>
      <rects>
        <_>
          1 0 24 36 -1.</_>
        <_>
          9 0 8 36 3.</_></rects>
      <tilted>0</tilted></_>
    <_>
      <rects>
        <_>
          1 1 10 35 -1.</_>
        <_>
          6 1 5 35 2.</_></rects>
      <tilted>0</tilted></_>
    <_>
      <rects>
        <_>
          2 8 12 2 -1.</_>
        <_>
          2 8 6 2 2.</_></rects>
      <tilted>1</tilted></_>
    <_>
      <rects>
        <_>
          6 7 10 5 -1.</_>
        <_>
          6 7 5 5 2.</_></rects>
      <tilted>1</tilted></_>
    <_>
      <rects>
        <_>
          7 9 42 21 -1.</_>
        <_>
          21 16 14 7 9.</_></rects>
      <tilted>0</tilted></_>
    <_>
      <rects>
        <_>
          8 2 10 8 -1.</_>
        <_>
          8 2 5 8 2.</_></rects>
      <tilted>1</tilted></_>
    <_>
      <rects>
        <_>
          9 36 4 2 -1.</_>
        <_>
          10 36 2 2 2.</_></rects>
      <tilted>0</tilted></_>
    <_>
      <rects>
        <_>
          10 0 52 15 -1.</_>
        <_>
          23 0 26 15 2.</_></rects>
      <tilted>0</tilted></_>
    <_>
      <rects>
        <_>
          10 8 58 22 -1.</_>
        <_>
          10 19 58 11 2.</_></rects>
      <tilted>0</tilted></_>
    <_>
      <rects>
        <_>
          14 19 47 8 -1.</_>
        <_>
          14 23 47 4 2.</_></rects>
      <tilted>0</tilted></_>
    <_>
      <rects>
        <_>
          15 14 44 13 -1.</_>
        <_>
          26 14 22 13 2.</_></rects>
      <tilted>0</tilted></_>
    <_>
      <rects>
        <_>
          15 20 40 12 -1.</_>
        <_>
          15 26 40 6 2.</_></rects>
      <tilted>0</tilted></_>
    <_>
      <rects>
        <_>
          17 13 24 10 -1.</_>
        <_>
          25 13 8 10 3.</_></rects>
      <tilted>0</tilted></_>
    <_>
      <rects>
        <_>
          17 22 24 10 -1.</_>
        <_>
          25 22 8 10 3.</_></rects>
      <tilted>0</tilted></_>
    <_>
      <rects>
        <_>
          17 26 4 10 -1.</_>
        <_>
          19 26 2 10 2.</_></rects>
      <tilted>0</tilted></_>
    <_>
      <rects>
        <_>
          17 39 8 1 -1.</_>
        <_>
          21 39 4 1 2.</_></rects>
      <tilted>0</tilted></_>
    <_>
      <rects>
        <_>
          18 5 48 19 -1.</_>
        <_>
          34 5 16 19 3.</_></rects>
      <tilted>0</tilted></_>
    <_>
      <rects>
        <_>
          18 18 41 6 -1.</_>
        <_>
          18 20 41 2 3.</_></rects>
      <tilted>0</tilted></_>
    <_>
      <rects>
        <_>
          19 1 39 35 -1.</_>
        <_>
          32 1 13 35 3.</_></rects>
      <tilted>0</tilted></_>
    <_>
      <rects>
        <_>
          19 38 8 2 -1.</_>
        <_>
          21 38 4 2 2.</_></rects>
      <tilted>0</tilted></_>
    <_>
      <rects>
        <_>
          20 11 24 13 -1.</_>
        <_>
          28 11 8 13 3.</_></rects>
      <tilted>0</tilted></_>
    <_>
      <rects>
        <_>
          20 19 24 1 -1.</_>
        <_>
          28 19 8 1 3.</_></rects>
      <tilted>0</tilted></_>
    <_>
      <rects>
        <_>
          21 11 24 12 -1.</_>
        <_>
          29 11 8 12 3.</_></rects>
      <tilted>0</tilted></_>
    <_>
      <rects>
        <_>
          21 13 24 5 -1.</_>
        <_>
          33 13 12 5 2.</_></rects>
      <tilted>0</tilted></_>
    <_>
      <rects>
        <_>
          21 19 27 15 -1.</_>
        <_>
          30 19 9 15 3.</_></rects>
      <tilted>0</tilted></_>
    <_>
      <rects>
        <_>
          21 24 33 6 -1.</_>
        <_>
          32 24 11 6 3.</_></rects>
      <tilted>0</tilted></_>
    <_>
      <rects>
        <_>
          21 25 32 6 -1.</_>
        <_>
          21 28 32 3 2.</_></rects>
      <tilted>0</tilted></_>
    <_>
      <rects>
        <_>
          22 15 39 9 -1.</_>
        <_>
          35 18 13 3 9.</_></rects>
      <tilted>0</tilted></_>
    <_>
      <rects>
        <_>
          22 20 39 10 -1.</_>
        <_>
          35 20 13 10 3.</_></rects>
      <tilted>0</tilted></_>
    <_>
      <rects>
        <_>
          23 8 21 22 -1.</_>
        <_>
          30 8 7 22 3.</_></rects>
      <tilted>0</tilted></_>
    <_>
      <rects>
        <_>
          24 19 22 9 -1.</_>
        <_>
          24 22 22 3 3.</_></rects>
      <tilted>0</tilted></_>
    <_>
      <rects>
        <_>
          25 15 27 9 -1.</_>
        <_>
          34 15 9 9 3.</_></rects>
      <tilted>0</tilted></_>
    <_>
      <rects>
        <_>
          26 1 18 15 -1.</_>
        <_>
          32 7 6 15 3.</_></rects>
      <tilted>1</tilted></_>
    <_>
      <rects>
        <_>
          26 14 24 18 -1.</_>
        <_>
          34 14 8 18 3.</_></rects>
      <tilted>0</tilted></_>
    <_>
      <rects>
        <_>
          27 7 42 28 -1.</_>
        <_>
          41 7 14 28 3.</_></rects>
      <tilted>0</tilted></_>
    <_>
      <rects>
        <_>
          27 12 24 12 -1.</_>
        <_>
          35 16 8 4 9.</_></rects>
      <tilted>0</tilted></_>
    <_>
      <rects>
        <_>
          27 14 24 13 -1.</_>
        <_>
          35 14 8 13 3.</_></rects>
      <tilted>0</tilted></_>
    <_>
      <rects>
        <_>
          27 14 30 21 -1.</_>
        <_>
          42 14 15 21 2.</_></rects>
      <tilted>0</tilted></_>
    <_>
      <rects>
        <_>
          29 6 21 27 -1.</_>
        <_>
          36 15 7 9 9.</_></rects>
      <tilted>0</tilted></_>
    <_>
      <rects>
        <_>
          31 0 28 33 -1.</_>
        <_>
          38 0 14 33 2.</_></rects>
      <tilted>0</tilted></_>
    <_>
      <rects>
        <_>
          35 4 45 32 -1.</_>
        <_>
          50 4 15 32 3.</_></rects>
      <tilted>0</tilted></_>
    <_>
      <rects>
        <_>
          35 19 2 2 -1.</_>
        <_>
          35 19 2 1 2.</_></rects>
      <tilted>1</tilted></_>
    <_>
      <rects>
        <_>
          36 15 44 15 -1.</_>
        <_>
          47 15 22 15 2.</_></rects>
      <tilted>0</tilted></_>
    <_>
      <rects>
        <_>
          36 17 14 8 -1.</_>
        <_>
          36 19 14 4 2.</_></rects>
      <tilted>0</tilted></_>
    <_>
      <rects>
        <_>
          36 18 4 22 -1.</_>
        <_>
          36 29 4 11 2.</_></rects>
      <tilted>0</tilted></_>
    <_>
      <rects>
        <_>
          37 4 42 36 -1.</_>
        <_>
          51 16 14 12 9.</_></rects>
      <tilted>0</tilted></_>
    <_>
      <rects>
        <_>
          39 20 2 1 -1.</_>
        <_>
          39 20 1 1 2.</_></rects>
      <tilted>1</tilted></_>
    <_>
      <rects>
        <_>
          41 0 24 6 -1.</_>
        <_>
          41 0 12 6 2.</_></rects>
      <tilted>1</tilted></_>
    <_>
      <rects>
        <_>
          41 10 1 8 -1.</_>
        <_>
          41 14 1 4 2.</_></rects>
      <tilted>0</tilted></_>
    <_>
      <rects>
        <_>
          42 21 13 6 -1.</_>
        <_>
          42 23 13 2 3.</_></rects>
      <tilted>0</tilted></_>
    <_>
      <rects>
        <_>
          44 17 2 8 -1.</_>
        <_>
          44 21 2 4 2.</_></rects>
      <tilted>0</tilted></_>
    <_>
      <rects>
        <_>
          45 18 2 3 -1.</_>
        <_>
          44 19 2 1 3.</_></rects>
      <tilted>1</tilted></_>
    <_>
      <rects>
        <_>
          45 23 2 2 -1.</_>
        <_>
          45 23 1 2 2.</_></rects>
      <tilted>1</tilted></_>
    <_>
      <rects>
        <_>
          46 17 2 2 -1.</_>
        <_>
          46 17 2 1 2.</_></rects>
      <tilted>1</tilted></_>
    <_>
      <rects>
        <_>
          47 15 2 4 -1.</_>
        <_>
          47 15 2 2 2.</_></rects>
      <tilted>1</tilted></_>
    <_>
      <rects>
        <_>
          50 0 22 12 -1.</_>
        <_>
          46 4 22 4 3.</_></rects>
      <tilted>1</tilted></_>
    <_>
      <rects>
        <_>
          52 13 12 15 -1.</_>
        <_>
          55 16 6 15 2.</_></rects>
      <tilted>1</tilted></_>
    <_>
      <rects>
        <_>
          55 17 3 7 -1.</_>
        <_>
          56 17 1 7 3.</_></rects>
      <tilted>0</tilted></_>
    <_>
      <rects>
        <_>
          58 0 18 28 -1.</_>
        <_>
          58 14 18 14 2.</_></rects>
      <tilted>0</tilted></_>
    <_>
      <rects>
        <_>
          58 2 22 35 -1.</_>
        <_>
          69 2 11 35 2.</_></rects>
      <tilted>0</tilted></_>
    <_>
      <rects>
        <_>
          58 2 22 36 -1.</_>
        <_>
          69 2 11 36 2.</_></rects>
      <tilted>0</tilted></_>
    <_>
      <rects>
        <_>
          58 38 6 2 -1.</_>
        <_>
          61 38 3 2 2.</_></rects>
      <tilted>0</tilted></_>
    <_>
      <rects>
        <_>
          60 16 20 12 -1.</_>
        <_>
          70 16 10 12 2.</_></rects>
      <tilted>0</tilted></_>
    <_>
      <rects>
        <_>
          64 2 3 33 -1.</_>
        <_>
          53 13 3 11 3.</_></rects>
      <tilted>1</tilted></_>
    <_>
      <rects>
        <_>
          73 8 2 14 -1.</_>
        <_>
          74 8 1 14 2.</_></rects>
      <tilted>0</tilted></_>
    <_>
      <rects>
        <_>
          74 3 6 6 -1.</_>
        <_>
          77 3 3 6 2.</_></rects>
      <tilted>0</tilted></_>
    <_>
      <rects>
        <_>
          75 38 4 2 -1.</_>
        <_>
          77 38 2 2 2.</_></rects>
      <tilted>0</tilted></_>
    <_>
      <rects>
        <_>
          76 0 4 5 -1.</_>
        <_>
          77 0 2 5 2.</_></rects>
      <tilted>0</tilted></_>
    <_>
      <rects>
        <_>
          76 1 4 8 -1.</_>
        <_>
          76 1 2 4 2.</_>
        <_>
          78 5 2 4 2.</_></rects>
      <tilted>0</tilted></_>
    <_>
      <rects>
        <_>
          77 0 2 8 -1.</_>
        <_>
          78 0 1 8 2.</_></rects>
      <tilted>0</tilted></_>
    <_>
      <rects>
        <_>
          77 9 2 5 -1.</_>
        <_>
          78 9 1 5 2.</_></rects>
      <tilted>0</tilted></_>
    <_>
      <rects>
        <_>
          78 3 2 4 -1.</_>
        <_>
          78 5 2 2 2.</_></rects>
      <tilted>0</tilted></_></features></cascade>
</opencv_storage>
